4,3,1
-0.16023879139374947,-0.43787522832358655,-1.086129489155144,0.09125427534740058,-1.7135651225867756,0.6938041654432334,-1.3487265408246967,0.20701365155152077,-0.0702588942538041,0.2582803034626367,1.1016352312515423,0.051973840060414354,-0.57184184201095,1.135925160752028,-0.12808532914614018,0.3935128967591869,0.3847135005620858,-0.2290788743366405,0.7396425815907296,-0.12755629260310197,-0.4744346470025923,0.1693748708848875,0.2295791218832627,-0.06074473315950295,0.5331132281714265,0.4716315802279594,-0.10361395108866002,0.5608371136362219,-0.6075392209606619,0.5092501326328958,0.8364535813261186,-0.5884731484519591,1.6383692854645175,0.3869001477986238
-1.4997206335189746,-2.1403761596430977,0.7197825360991953,-1.3236199518508949,0.15102593244159182,-0.4404992599347973,2.895174825332862,-1.6843387361964437,1.0982193627111074,0.04894418554562004,0.9652983127301069,0.39903978866510714,-2.6130230694009566,1.141638036004448,1.0820752889611527,0.034426642490609595,0.872198682067582,-1.3189633163197807,0.9334988091790298,0.7032161334451218,1.3345072336226533,1.074610106834628,-2.1317206973705067,-1.229385998981886,-0.1963247655047386,1.4964103143390521,1.7870176245234273,-0.8684686204424114,-1.1418912063762579,-0.5507363903183581,-0.4979517609382961,0.5890846566521204,0.8755339027800848,-0.47076035070979133
0.8414899647592988,0.3697985346981232,-1.807580169202176,4.448795895322057,4.094456742580075,2.0124263969992424,1.0586572439892565,0.9810170077012352,-0.1772640230327169,-1.0572518854829598,-1.0051508843428532,0.6456935565541023,0.091241867685701,0.11240177648056579,0.8844373467316041,0.995773608427012,0.3683422801836028,-1.013853758834985,-1.1187321635082772,1.3113315020466056,-0.49687065162065724,0.9535853369648305,-2.31214124779196,-0.8524329952776344,0.5914130777211449,-2.2571661204819544,2.3494378171995787,1.2257056055548996,0.8685884728887987,-0.3852086843791471,1.7060475370946542,0.20036097501354908,0.14781054572196006,-1.1645984355321655
3.464908932955677,3.2200677622764187,1.567069468321046,1.1239395665963008,-2.44245907710746,-0.5746089607997829,5.127880409754199,1.3749969876591293,2.2007532552083076,-0.8677133810946981,2.1979474537752006,-1.0236302956163617,-0.9056086467062355,2.455368061974746,1.2971037719306089,-0.1391695681152177,3.207195793941237,0.06990594185125137,0.37866232148083023,0.7775259868841965,-2.1670189115182072,1.5277071751361118,-0.5343779266079254,0.01740461023840255,2.0765048581788834,-2.4608971500718844,1.0630892974459294,-0.5705380679619925,0.030536318822591297,0.8917765788034587,-2.2052491209958514,0.3629004259562858,-1.316359873563576,-2.4450589578388064
-0.3484597970326751,-2.557755384885921,2.652206599558598,2.896477488707366,-3.5512675331045327
0.7289597013968048,3.408102796203978,-2.2413798963678917,-1.9130390093113663,1.9717696453278546
-0.8796460747117347,-3.443095640983317,3.812331654379419,3.8905966619127392,-4.6476954513743785
4.115350433706921,-4.420897288788351,5.959001556320732,-3.647829333511453
